<?xml version="1.0"?>
<opencv_storage>
<stage0>
  <maxWeakCount>5</maxWeakCount>
  <stageThreshold>3.1083726882934570e-01</stageThreshold>
  <weakClassifiers>
    <_>
      <internalNodes>
        0 -1 84176 1.4619728550314903e-02</internalNodes>
      <leafValues>
        -6.8421053886413574e-01 8.3964365720748901e-01</leafValues></_>
    <_>
      <internalNodes>
        0 -1 61276 3.9080642163753510e-03</internalNodes>
      <leafValues>
        -5.7358616590499878e-01 9.2668807506561279e-01</leafValues></_>
    <_>
      <internalNodes>
        0 -1 481 2.6182696223258972e-02</internalNodes>
      <leafValues>
        -9.9730509519577026e-01 5.5686765909194946e-01</leafValues></_>
    <_>
      <internalNodes>
        0 -1 69940 -1.4530399814248085e-02</internalNodes>
      <leafValues>
        5.6963837146759033e-01 -8.1566548347473145e-01</leafValues></_>
    <_>
      <internalNodes>
        0 -1 124804 -2.2517238903674297e-05</internalNodes>
      <leafValues>
        -1. 4.4212794303894043e-01</leafValues></_></weakClassifiers></stage0>
</opencv_storage>
