<?xml version="1.0"?>
<opencv_storage>
<stage1>
  <maxWeakCount>8</maxWeakCount>
  <stageThreshold>3.2286852598190308e-01</stageThreshold>
  <weakClassifiers>
    <_>
      <internalNodes>
        0 -1 68325 4.2123994790017605e-03</internalNodes>
      <leafValues>
        -6.1904764175415039e-01 8.8349515199661255e-01</leafValues></_>
    <_>
      <internalNodes>
        0 -1 124804 1.9320923456689343e-05</internalNodes>
      <leafValues>
        5.7525700330734253e-01 -1.</leafValues></_>
    <_>
      <internalNodes>
        0 -1 53715 -5.5456236004829407e-03</internalNodes>
      <leafValues>
        9.5453190803527832e-01 -6.1719304323196411e-01</leafValues></_>
    <_>
      <internalNodes>
        0 -1 91849 3.0074510723352432e-03</internalNodes>
      <leafValues>
        -9.2410778999328613e-01 5.0011438131332397e-01</leafValues></_>
    <_>
      <internalNodes>
        0 -1 60166 -4.7975038178265095e-03</internalNodes>
      <leafValues>
        9.6618562936782837e-01 -4.7515335679054260e-01</leafValues></_>
    <_>
      <internalNodes>
        0 -1 86237 -4.4671436771750450e-03</internalNodes>
      <leafValues>
        9.9205303192138672e-01 -4.3430724740028381e-01</leafValues></_>
    <_>
      <internalNodes>
        0 -1 961 2.5143895298242569e-02</internalNodes>
      <leafValues>
        -9.4111436605453491e-01 5.8007138967514038e-01</leafValues></_>
    <_>
      <internalNodes>
        0 -1 68879 4.1979141533374786e-03</internalNodes>
      <leafValues>
        -5.9459024667739868e-01 9.8567843437194824e-01</leafValues></_></weakClassifiers></stage1>
</opencv_storage>
