<?xml version="1.0"?>
<opencv_storage>
<cascade>
  <stageType>BOOST</stageType>
  <featureType>HAAR</featureType>
  <height>20</height>
  <width>20</width>
  <stageParams>
    <boostType>GAB</boostType>
    <minHitRate>9.9900001287460327e-01</minHitRate>
    <maxFalseAlarm>5.0000000745058060e-02</maxFalseAlarm>
    <weightTrimRate>9.4999999999999996e-01</weightTrimRate>
    <maxDepth>1</maxDepth>
    <maxWeakCount>100</maxWeakCount></stageParams>
  <featureParams>
    <maxCatCount>0</maxCatCount>
    <featSize>1</featSize>
    <mode>ALL</mode></featureParams>
  <stageNum>3</stageNum>
  <stages>
    <!-- stage 0 -->
    <_>
      <maxWeakCount>5</maxWeakCount>
      <stageThreshold>3.1083726882934570e-01</stageThreshold>
      <weakClassifiers>
        <_>
          <internalNodes>
            0 -1 10 1.4619728550314903e-02</internalNodes>
          <leafValues>
            -6.8421053886413574e-01 8.3964365720748901e-01</leafValues></_>
        <_>
          <internalNodes>
            0 -1 6 3.9080642163753510e-03</internalNodes>
          <leafValues>
            -5.7358616590499878e-01 9.2668807506561279e-01</leafValues></_>
        <_>
          <internalNodes>
            0 -1 1 2.6182696223258972e-02</internalNodes>
          <leafValues>
            -9.9730509519577026e-01 5.5686765909194946e-01</leafValues></_>
        <_>
          <internalNodes>
            0 -1 9 -1.4530399814248085e-02</internalNodes>
          <leafValues>
            5.6963837146759033e-01 -8.1566548347473145e-01</leafValues></_>
        <_>
          <internalNodes>
            0 -1 18 -2.2517238903674297e-05</internalNodes>
          <leafValues>
            -1. 4.4212794303894043e-01</leafValues></_></weakClassifiers></_>
    <!-- stage 1 -->
    <_>
      <maxWeakCount>8</maxWeakCount>
      <stageThreshold>3.2286852598190308e-01</stageThreshold>
      <weakClassifiers>
        <_>
          <internalNodes>
            0 -1 7 4.2123994790017605e-03</internalNodes>
          <leafValues>
            -6.1904764175415039e-01 8.8349515199661255e-01</leafValues></_>
        <_>
          <internalNodes>
            0 -1 18 1.9320923456689343e-05</internalNodes>
          <leafValues>
            5.7525700330734253e-01 -1.</leafValues></_>
        <_>
          <internalNodes>
            0 -1 4 -5.5456236004829407e-03</internalNodes>
          <leafValues>
            9.5453190803527832e-01 -6.1719304323196411e-01</leafValues></_>
        <_>
          <internalNodes>
            0 -1 12 3.0074510723352432e-03</internalNodes>
          <leafValues>
            -9.2410778999328613e-01 5.0011438131332397e-01</leafValues></_>
        <_>
          <internalNodes>
            0 -1 5 -4.7975038178265095e-03</internalNodes>
          <leafValues>
            9.6618562936782837e-01 -4.7515335679054260e-01</leafValues></_>
        <_>
          <internalNodes>
            0 -1 11 -4.4671436771750450e-03</internalNodes>
          <leafValues>
            9.9205303192138672e-01 -4.3430724740028381e-01</leafValues></_>
        <_>
          <internalNodes>
            0 -1 2 2.5143895298242569e-02</internalNodes>
          <leafValues>
            -9.4111436605453491e-01 5.8007138967514038e-01</leafValues></_>
        <_>
          <internalNodes>
            0 -1 8 4.1979141533374786e-03</internalNodes>
          <leafValues>
            -5.9459024667739868e-01 9.8567843437194824e-01</leafValues></_></weakClassifiers></_>
    <!-- stage 2 -->
    <_>
      <maxWeakCount>7</maxWeakCount>
      <stageThreshold>3.8013327121734619e-01</stageThreshold>
      <weakClassifiers>
        <_>
          <internalNodes>
            0 -1 15 -6.1961943283677101e-03</internalNodes>
          <leafValues>
            9.6600568294525146e-01 -5.2704793214797974e-01</leafValues></_>
        <_>
          <internalNodes>
            0 -1 3 4.6165809035301208e-02</internalNodes>
          <leafValues>
            6.1992418766021729e-01 -9.0150350332260132e-01</leafValues></_>
        <_>
          <internalNodes>
            0 -1 17 -1.8492954040993936e-05</internalNodes>
          <leafValues>
            -1. 4.4574669003486633e-01</leafValues></_>
        <_>
          <internalNodes>
            0 -1 13 4.6520372852683067e-03</internalNodes>
          <leafValues>
            -5.8721274137496948e-01 8.3838152885437012e-01</leafValues></_>
        <_>
          <internalNodes>
            0 -1 16 -1.9181708921678364e-05</internalNodes>
          <leafValues>
            -9.8258918523788452e-01 5.1086360216140747e-01</leafValues></_>
        <_>
          <internalNodes>
            0 -1 14 4.3391184881329536e-03</internalNodes>
          <leafValues>
            -5.5554044246673584e-01 9.4159990549087524e-01</leafValues></_>
        <_>
          <internalNodes>
            0 -1 0 -7.1766597102396190e-05</internalNodes>
          <leafValues>
            -9.3549990653991699e-01 5.6923335790634155e-01</leafValues></_></weakClassifiers></_></stages>
  <features>
    <_>
      <rects>
        <_>
          0 0 2 4 -1.</_>
        <_>
          0 0 1 2 2.</_>
        <_>
          1 2 1 2 2.</_></rects>
      <tilted>0</tilted></_>
    <_>
      <rects>
        <_>
          0 0 20 19 -1.</_>
        <_>
          5 0 10 19 2.</_></rects>
      <tilted>0</tilted></_>
    <_>
      <rects>
        <_>
          0 0 20 6 -1.</_>
        <_>
          0 3 20 3 2.</_></rects>
      <tilted>0</tilted></_>
    <_>
      <rects>
        <_>
          2 3 16 12 -1.</_>
        <_>
          6 3 8 12 2.</_></rects>
      <tilted>0</tilted></_>
    <_>
      <rects>
        <_>
          5 10 1 3 -1.</_>
        <_>
          5 11 1 1 3.</_></rects>
      <tilted>0</tilted></_>
    <_>
      <rects>
        <_>
          6 6 3 1 -1.</_>
        <_>
          7 6 1 1 3.</_></rects>
      <tilted>0</tilted></_>
    <_>
      <rects>
        <_>
          6 8 3 1 -1.</_>
        <_>
          7 8 1 1 3.</_></rects>
      <tilted>0</tilted></_>
    <_>
      <rects>
        <_>
          7 6 3 1 -1.</_>
        <_>
          8 6 1 1 3.</_></rects>
      <tilted>0</tilted></_>
    <_>
      <rects>
        <_>
          7 7 2 2 -1.</_>
        <_>
          7 7 1 1 2.</_>
        <_>
          8 8 1 1 2.</_></rects>
      <tilted>0</tilted></_>
    <_>
      <rects>
        <_>
          7 9 6 3 -1.</_>
        <_>
          9 10 2 1 9.</_></rects>
      <tilted>0</tilted></_>
    <_>
      <rects>
        <_>
          9 7 3 3 -1.</_>
        <_>
          10 8 1 1 9.</_></rects>
      <tilted>0</tilted></_>
    <_>
      <rects>
        <_>
          9 13 2 1 -1.</_>
        <_>
          10 13 1 1 2.</_></rects>
      <tilted>0</tilted></_>
    <_>
      <rects>
        <_>
          10 8 9 12 -1.</_>
        <_>
          10 11 9 6 2.</_></rects>
      <tilted>0</tilted></_>
    <_>
      <rects>
        <_>
          10 13 3 1 -1.</_>
        <_>
          11 13 1 1 3.</_></rects>
      <tilted>0</tilted></_>
    <_>
      <rects>
        <_>
          11 11 2 2 -1.</_>
        <_>
          11 11 1 1 2.</_>
        <_>
          12 12 1 1 2.</_></rects>
      <tilted>0</tilted></_>
    <_>
      <rects>
        <_>
          14 7 1 3 -1.</_>
        <_>
          14 8 1 1 3.</_></rects>
      <tilted>0</tilted></_>
    <_>
      <rects>
        <_>
          17 0 3 1 -1.</_>
        <_>
          18 0 1 1 3.</_></rects>
      <tilted>0</tilted></_>
    <_>
      <rects>
        <_>
          18 0 2 2 -1.</_>
        <_>
          18 1 2 1 2.</_></rects>
      <tilted>0</tilted></_>
    <_>
      <rects>
        <_>
          19 0 1 2 -1.</_>
        <_>
          19 1 1 1 2.</_></rects>
      <tilted>0</tilted></_></features></cascade>
</opencv_storage>
